[0.9744570540963073, -0.6500993777441757, 0.6201352693050664, 0.7507069794884211, -0.1979411117114831, 0.18352754948235805, -0.46061079149263806, -0.4616838833656025, -0.34753288154214346]
[-0.9838398827953418, 0.9672242487792564, 0.031680693813238126, 0.6556278829415134, 0.687040016234227, 0.8350547507606549, -0.34434724602344025, 0.24906071176856615, 0.7102592049137697]
[0.1793147839801612, 0.048314901360186235, 0.1853304949264689, -0.16243527048069528, 0.13781156084041113, 0.9154449460455945, 0.037299985823002535, 0.9374075834970192, 0.7371518560832129]
[0.9169360073423762, -0.9101819916454972, -0.4864907658133084]
[0.6817046677181511, 0.7552192375955797, -0.638059631744692]
[-0.12281561187701162, 0.221687056605405, 0.6125847208756208]
[0.2395332874537972, -0.7495699776822491, -0.7429151036534531]
[0.4315303549169387, -0.39587218724939244, 0.46174603170163664]
[-0.46185363400448187, -0.24364886987034984, 0.4599272924147997]
[0.2705811022881639, 0.3974209288696309, -0.49938335908638254]
[-0.8881000287537018, 0.1631678475825178, 0.29147478645503355]
[0.18189419010830887, -0.22793865206349584, 0.5290359379681484]
