[0.5692463926550768, -0.8081045541922198, -0.32240321822744145, 0.6563641913995988, -0.21162989178175162, 0.34865689986372606, 0.5103224448240029, -0.21578694797258624, 0.8328239345999693]
[0.35159838661707554, -0.9318700536563289, -0.5278684044048798, 0.9255877649535884, 0.747628042501832, 0.2018600128885788, 0.434246942779968, 0.14434298042853722, -0.5127014490405042]
[0.07627658891182887, -0.6401500843031203, -0.7295062705856914, 0.2506482750578052, 0.04325169105384363, -0.3686431820170033, 0.939155368987838, 0.2871574231067391, 0.48234784812857456]
[0.9986047498072876, 0.9935187235681111, 0.17384580005422667]
[0.6463781295792619, 0.7025188088412306, 0.7102309322693818]
[-0.3687885826675852, -0.6309049493873127, 0.3945111608196097]
[0.07110250937170104, -0.03232008438261036, 0.8995222728327239]
[-0.5762730430958065, 0.7301005051306373, -0.46030457745382436]
[-0.8144929905427851, 0.7502278627840717, -0.8177586667680559]
[-0.055940359232030445, 0.9387538864886342, -0.514476921997062]
[0.20597691599788237, -0.4457467374826709, -0.5306075082218153]
[-0.6455697922507757, -0.6299435310196193, 0.32746034788808775]
